{
  "input_nodes": 5,
  "hidden_nodes": 8,
  "output_nodes": 2,
  "weights_ih": {
    "rows": 8,
    "cols": 5,
    "data": [
      [
        -0.15465543264792667,
        -0.1756840401075621,
        1.0182303815736258,
        -0.5776873934469303,
        -0.7570361286056236
      ],
      [
        0.5668462155464746,
        -0.9262948518601837,
        -0.7608123891936761,
        0.525943960974207,
        0.45090707391864093
      ],
      [
        -0.32528054955899793,
        0.6331109596921328,
        -0.5040228880653131,
        0.010651404344571347,
        -0.23242756123804442
      ],
      [
        0.17147092272619271,
        1.0290087465373448,
        0.9267488652907092,
        0.001926806899139183,
        0.8365615142505077
      ],
      [
        -0.9039381630377519,
        -0.9762781178181184,
        -0.544906206489345,
        -0.19204372881182818,
        0.7673102043017591
      ],
      [
        0.7155460263348741,
        0.9525051549155988,
        -1.0478340664156638,
        -0.7730803334528096,
        -0.5119695911788202
      ],
      [
        0.4371106622796328,
        -0.9241667418023902,
        -0.09769293852092086,
        -0.45710004242762364,
        0.0427381347019615
      ],
      [
        -0.7641118396100604,
        -0.382655879305762,
        0.8781618056011852,
        0.8226469189162804,
        0.23059844441262517
      ]
    ]
  },
  "weights_ho": {
    "rows": 2,
    "cols": 8,
    "data": [
      [
        -0.6035133192531772,
        0.9206585720789145,
        -0.7434302347919404,
        0.9363420898466238,
        -1.1311898152750437,
        0.694143836432537,
        0.034526434096958006,
        0.9900859722590676
      ],
      [
        -0.9703529068031428,
        -0.19682689676321802,
        0.6394623369306577,
        -0.2963498022197383,
        0.5275475823366506,
        0.6985373801592041,
        -0.18263010136994987,
        0.20327916078664157
      ]
    ]
  },
  "bias_h": {
    "rows": 8,
    "cols": 1,
    "data": [
      [
        0.8860806029117628
      ],
      [
        0.6659808885330508
      ],
      [
        0.5291628621992017
      ],
      [
        -0.5667786105687309
      ],
      [
        0.6941102440695563
      ],
      [
        -0.4839083097605305
      ],
      [
        -0.2414015357611828
      ],
      [
        0.9943528310804188
      ]
    ]
  },
  "bias_o": {
    "rows": 2,
    "cols": 1,
    "data": [
      [
        -0.5757352280957266
      ],
      [
        0.33293113928975204
      ]
    ]
  },
  "learning_rate": 0.1,
  "activation_function": {}
}
