{
  "input_nodes": 5,
  "hidden_nodes": 8,
  "output_nodes": 2,
  "weights_ih": {
    "rows": 8,
    "cols": 5,
    "data": [
      [
        0.022943904076358004,
        0.6082967930070381,
        0.13819762715814254,
        -0.9648321764975859,
        -1.0027405105056562
      ],
      [
        -0.720955514506511,
        0.036852793620945776,
        0.11083990052435944,
        0.4830169748354007,
        -0.561952002401361
      ],
      [
        -0.2774448568015071,
        -1.0502218031370891,
        -0.5795454524471493,
        0.6461580312088944,
        -0.7201346108657383
      ],
      [
        1.0401622513247042,
        -0.2588297148680231,
        0.19483298727353016,
        -0.5495428258392856,
        0.547220525522432
      ],
      [
        0.66608962101708,
        0.31876969355050105,
        -0.1444806540882182,
        -0.3310426365104413,
        0.6246818142449461
      ],
      [
        -1.1825682226423226,
        0.3035304519794789,
        -1.0380911677800857,
        -0.4871025920181678,
        -0.21890931162124824
      ],
      [
        -0.2672657804498903,
        0.3358617968431654,
        -0.03745041492757495,
        -1.5070563097290974,
        0.9326618873626112
      ],
      [
        0.141231072730287,
        -0.21026724066727703,
        -1.0918291981089296,
        0.7446069373556681,
        0.2967290559806951
      ]
    ]
  },
  "weights_ho": {
    "rows": 2,
    "cols": 8,
    "data": [
      [
        -0.8460852734696029,
        0.15964082440401972,
        0.8104452869427599,
        0.6274225516833876,
        0.6628435219883073,
        -1.1005587767490648,
        -0.66870907252941,
        -0.7996707613024772
      ],
      [
        -0.8425488155823456,
        0.1730623285607451,
        0.5475600993840287,
        -0.974200898820482,
        0.42454900534247314,
        0.8158459196227508,
        0.09167421840632314,
        -0.5621044884547479
      ]
    ]
  },
  "bias_h": {
    "rows": 8,
    "cols": 1,
    "data": [
      [
        0.2621811602497942
      ],
      [
        0.7715145191496819
      ],
      [
        0.9195964897834868
      ],
      [
        0.637622428212354
      ],
      [
        -0.9402711515481783
      ],
      [
        0.9052201354446513
      ],
      [
        -0.6279241439247483
      ],
      [
        -0.9033594400104297
      ]
    ]
  },
  "bias_o": {
    "rows": 2,
    "cols": 1,
    "data": [
      [
        -0.5087075231015702
      ],
      [
        -0.16082570985766204
      ]
    ]
  },
  "learning_rate": 0.1,
  "activation_function": {}
}
