{
  "input_nodes": 5,
  "hidden_nodes": 8,
  "output_nodes": 2,
  "weights_ih": {
    "rows": 8,
    "cols": 5,
    "data": [
      [
        0.3103842689986726,
        -0.6786393759908796,
        0.47862101720207895,
        -0.15444285012125586,
        0.5539032996492037
      ],
      [
        0.12041883030274486,
        0.23014692549822569,
        -0.6602859875340503,
        -0.678432340624525,
        -0.43504451388991194
      ],
      [
        0.2970133864483646,
        -0.14840349428738797,
        0.24969586369416819,
        0.814464088951019,
        -0.7572736156319506
      ],
      [
        0.4965493637770686,
        -0.4728149116464439,
        0.23704180163644073,
        0.7496162520282708,
        0.6053314088706583
      ],
      [
        0.42538424650405,
        -0.7975831990827699,
        0.11506005246721356,
        -0.08402769689640699,
        0.4695096478380907
      ],
      [
        0.6852303813873759,
        0.4996435048165953,
        0.4446537099773662,
        -0.9021994872596562,
        0.16442564863675954
      ],
      [
        -0.8067302810821001,
        0.7280675816542792,
        0.4537207954386462,
        -0.5022439626998829,
        0.5057169446479172
      ],
      [
        0.10164095843179946,
        0.6473549404725648,
        -0.06328960853650038,
        0.0333546121239261,
        -0.9647808336482503
      ]
    ]
  },
  "weights_ho": {
    "rows": 2,
    "cols": 8,
    "data": [
      [
        0.5179139644095021,
        -0.7125727998117803,
        -0.8648276561187789,
        -0.12398037542019802,
        0.34267692500273084,
        0.02888234073736662,
        -0.73639441792233,
        0.08157680021464753
      ],
      [
        -0.663353411136678,
        -0.13513280662477722,
        -0.1691290404419781,
        -0.47304154713035673,
        0.20969125932246574,
        -0.31524254177929323,
        0.6976167160220855,
        -0.7086346873923173
      ]
    ]
  },
  "bias_h": {
    "rows": 8,
    "cols": 1,
    "data": [
      [
        0.3434183602385264
      ],
      [
        0.6045108840396076
      ],
      [
        -0.47874370468983063
      ],
      [
        0.15825664714376497
      ],
      [
        -0.4197388015850131
      ],
      [
        0.7205021785326547
      ],
      [
        -0.07287408759237701
      ],
      [
        0.24153442417459692
      ]
    ]
  },
  "bias_o": {
    "rows": 2,
    "cols": 1,
    "data": [
      [
        0.17485579238675264
      ],
      [
        0.6395783266656243
      ]
    ]
  },
  "learning_rate": 0.1,
  "activation_function": {}
}
